W1
-------
-0.04991307991421118  -0.551390368980981  -0.16048898370543913  -0.6939656545942763  -0.011769404613558016  
-0.8694632798949165  -0.22163083565616026  0.19286770565813263  0.006507257893782689  -1.5297027212244345  
-1.602560151332829  -0.047765757759392055  0.74249255689342  2.2940653628683245  0.4307312697801551  
0.7177483030798569  0.6415154321037921  -0.11368978104846983  -0.7185404297699374  0.6163037911272404  
0.32710076860924964  0.29236119061496735  -0.04941941165141667  -0.7922250672809248  -0.12273297356809569  

w2
-------
-0.04991307991421118  -0.551390368980981  -0.16048898370543913  
-0.8694632798949165  -0.22163083565616026  0.19286770565813263  
-1.602560151332829  -0.047765757759392055  0.74249255689342  
0.7177483030798569  0.6415154321037921  -0.11368978104846983  
0.32710076860924964  0.29236119061496735  -0.04941941165141667  

W1
-------
-0.050313994176954556  -0.5514398551039015  -0.16047995761024408  -0.6938920209240904  -0.011891145171526061  
-0.8698212390580802  -0.22167501969448206  0.19287576467169962  0.0065730022421629656  -1.5298114181511917  
-1.6032760696591564  -0.04785412583603565  0.742508674920554  2.294196851565085  0.4305138759266407  
0.716316466427202  0.641338695950505  -0.11365754499420185  -0.7182774523764163  0.6158690034202117  
0.3264278053825018  0.29227812462292235  -0.04940426070591071  -0.7921014679059699  -0.12293732379039919  

w2
-------
-0.050313994176954556  -0.5514398551039015  -0.16047995761024408  
-0.8698212390580802  -0.22167501969448206  0.19287576467169962  
-1.6032760696591564  -0.04785412583603565  0.742508674920554  
0.716316466427202  0.641338695950505  -0.11365754499420185  
0.3264278053825018  0.29227812462292235  -0.04940426070591071  